digraph Tree {
node [shape=box, fontname="helvetica"] ;
edge [fontname="helvetica"] ;
0 [label="Sex_encode <= 0.5\ngini = 0.473\nsamples = 891\nvalue = [549, 342]\nclass = Survived"] ;
1 [label="Pclass <= 1.5\ngini = 0.306\nsamples = 577\nvalue = [468, 109]\nclass = Survived"] ;
0 -> 1 [labeldistance=2.5, labelangle=45, headlabel="True"] ;
2 [label="gini = 0.466\nsamples = 122\nvalue = [77, 45]\nclass = Survived"] ;
1 -> 2 ;
3 [label="gini = 0.242\nsamples = 455\nvalue = [391, 64]\nclass = Survived"] ;
1 -> 3 ;
4 [label="Pclass <= 2.5\ngini = 0.383\nsamples = 314\nvalue = [81, 233]\nclass = Perish"] ;
0 -> 4 [labeldistance=2.5, labelangle=-45, headlabel="False"] ;
5 [label="gini = 0.1\nsamples = 170\nvalue = [9, 161]\nclass = Perish"] ;
4 -> 5 ;
6 [label="gini = 0.5\nsamples = 144\nvalue = [72, 72]\nclass = Survived"] ;
4 -> 6 ;
}